<?xml version="1.0"?>
<opencv_storage>
<stage2>
  <maxWeakCount>10</maxWeakCount>
  <stageThreshold>-9.5963728427886963e-01</stageThreshold>
  <weakClassifiers>
    <_>
      <internalNodes>
        0 -1 2253281 -4.3748607276938856e-04</internalNodes>
      <leafValues>
        6.4143109321594238e-01 -5.1051563024520874e-01</leafValues></_>
    <_>
      <internalNodes>
        0 -1 952784 -1.1063404381275177e-02</internalNodes>
      <leafValues>
        6.7617005109786987e-01 -2.8052127361297607e-01</leafValues></_>
    <_>
      <internalNodes>
        0 -1 2658662 -9.6121494425460696e-04</internalNodes>
      <leafValues>
        4.4258043169975281e-01 -3.6299008131027222e-01</leafValues></_>
    <_>
      <internalNodes>
        0 -1 2439199 -2.6742322370409966e-04</internalNodes>
      <leafValues>
        -8.2630509138107300e-01 1.8603929877281189e-01</leafValues></_>
    <_>
      <internalNodes>
        0 -1 2259628 2.6720936875790358e-04</internalNodes>
      <leafValues>
        1.2857832014560699e-01 -8.4109926223754883e-01</leafValues></_>
    <_>
      <internalNodes>
        0 -1 1555089 -1.9190071616321802e-03</internalNodes>
      <leafValues>
        3.8349175453186035e-01 -3.6873486638069153e-01</leafValues></_>
    <_>
      <internalNodes>
        0 -1 2719719 8.0179655924439430e-04</internalNodes>
      <leafValues>
        1.9614571332931519e-01 -6.4389622211456299e-01</leafValues></_>
    <_>
      <internalNodes>
        0 -1 2737065 1.5998826129361987e-03</internalNodes>
      <leafValues>
        2.5998461246490479e-01 -5.5082547664642334e-01</leafValues></_>
    <_>
      <internalNodes>
        0 -1 2626027 9.4015995273366570e-05</internalNodes>
      <leafValues>
        -2.5444725155830383e-01 5.9815984964370728e-01</leafValues></_>
    <_>
      <internalNodes>
        0 -1 2720922 -6.5220065880566835e-04</internalNodes>
      <leafValues>
        -5.8996897935867310e-01 2.6427486538887024e-01</leafValues></_></weakClassifiers></stage2>
</opencv_storage>
